FANN_FLO_2.0
num_layers=3
learning_rate=0.700000
connection_rate=1.000000
shortcut_connections=0
learning_momentum=0.000000
training_algorithm=2
train_error_function=1
train_stop_function=1
cascade_output_change_fraction=0.010000
quickprop_decay=-0.000100
quickprop_mu=1.750000
rprop_increase_factor=1.200000
rprop_decrease_factor=0.500000
rprop_delta_min=0.000000
rprop_delta_max=50.000000
rprop_delta_zero=0.500000
cascade_output_stagnation_epochs=12
cascade_candidate_change_fraction=0.010000
cascade_candidate_stagnation_epochs=12
cascade_max_out_epochs=150
cascade_max_cand_epochs=150
cascade_num_candidate_groups=2
bit_fail_limit=9.99999977648258209229e-03
cascade_candidate_limit=1.00000000000000000000e+03
cascade_weight_multiplier=4.00000005960464477539e-01
cascade_activation_functions_count=6
cascade_activation_functions=3 5 7 8 10 11 
cascade_activation_steepnesses_count=4
cascade_activation_steepnesses=2.50000000000000000000e-01 5.00000000000000000000e-01 7.50000000000000000000e-01 1.00000000000000000000e+00 
layer_sizes=3 4 4 
neurons (num_inputs, activation_function, activation_steepness)=(0, 0, 0.00000000000000000000e+00) (0, 0, 0.00000000000000000000e+00) (0, 0, 0.00000000000000000000e+00) (3, 5, 1.00000000000000000000e+00) (3, 5, 1.00000000000000000000e+00) (3, 5, 1.00000000000000000000e+00) (0, 5, 1.00000000000000000000e+00) (4, 5, 1.00000000000000000000e+00) (4, 5, 1.00000000000000000000e+00) (4, 5, 1.00000000000000000000e+00) (0, 5, 1.00000000000000000000e+00) 
connections (connected_to_neuron, weight)=(0, -5.60080647468566894531e-01) (1, -1.71528875827789306641e-01) (2, -1.31481242179870605469e+00) (0, 1.22852754592895507812e+00) (1, 4.04850393533706665039e-01) (2, -8.00665199756622314453e-01) (0, 3.66091704368591308594e+00) (1, 4.42909145355224609375e+00) (2, -2.31703543663024902344e+00) (3, 4.14471912384033203125e+00) (4, -5.65759696960449218750e+01) (5, -6.05000829696655273438e+00) (6, -4.43132066726684570312e+00) (3, 2.56205034255981445312e+00) (4, -9.47302722930908203125e+00) (5, 5.83475589752197265625e+00) (6, -4.01056855916976928711e-01) (3, 7.89114189147949218750e+00) (4, 5.36600532531738281250e+01) (5, 4.27891969680786132812e+00) (6, -8.15771579742431640625e+00) 
